svm_type c_svc
kernel_type rbf
gamma 0.01
nr_class 2
total_sv 361
rho 0.12557380847548638
label 0 1
nr_sv 190 171
SV
0.7244719247326843 19:0.7 50:0.191 53:0.095 54:0.095 55:1.688 56:11.0 57:103.0 
1.0 2:1.62 3:0.54 10:0.54 12:1.62 19:1.62 46:1.08 50:0.484 55:1.769 56:27.0 57:69.0 
1.0 10:0.97 27:0.97 50:0.491 51:0.163 55:4.312 56:33.0 57:138.0 
0.8596394434259594 3:1.19 8:0.59 15:1.19 19:2.97 21:1.19 25:1.78 26:1.19 27:2.38 28:0.59 29:0.59 30:0.59 31:0.59 32:0.59 34:0.59 35:0.59 36:0.59 39:0.59 40:0.59 43:0.59 45:1.19 50:0.197 51:0.098 55:2.203 56:12.0 57:119.0 
0.6173316329078944 3:2.56 42:5.12 55:4.368 56:52.0 57:83.0 
0.33466918798260614 1:1.42 12:4.28 19:1.42 41:4.28 50:0.35 52:0.175 55:1.826 56:7.0 57:42.0 
0.9357071266405398 3:0.4 12:0.4 21:0.4 25:13.93 26:0.81 37:0.4 49:2.053 50:1.932 51:0.06 55:6.113 56:20.0 57:593.0 
1.0 27:4.34 37:4.34 39:8.69 49:0.636 50:1.273 55:3.5 56:24.0 57:35.0 
1.0 3:0.13 5:0.26 8:0.65 9:0.13 12:0.78 13:0.26 17:0.13 23:0.13 25:1.69 37:0.13 48:0.13 50:0.105 53:0.052 55:2.165 56:20.0 57:446.0 
0.5783368597598519 3:0.87 5:0.87 10:0.87 21:0.87 25:1.75 26:0.87 27:2.63 37:0.87 43:0.87 45:0.87 50:0.283 51:0.141 55:1.785 56:15.0 57:75.0 
0.6316596521383028 19:1.57 21:0.78 44:0.78 45:0.78 46:0.78 55:2.848 56:51.0 57:94.0 
1.0 1:0.16 2:0.16 3:0.16 5:0.83 6:0.16 8:0.16 12:0.5 13:0.16 19:2.34 21:0.67 44:0.16 45:0.33 46:0.16 49:0.087 50:0.058 55:1.901 56:16.0 57:135.0 
1.0 3:0.86 12:0.86 18:0.86 19:0.86 21:2.58 25:1.72 26:0.86 28:0.86 30:0.86 31:0.86 35:0.86 36:0.86 50:0.11 52:0.11 55:1.812 56:10.0 57:58.0 
1.0 10:1.66 27:1.66 51:0.265 55:3.85 56:26.0 57:77.0 
1.0 6:0.47 10:0.23 19:2.6 25:5.45 27:0.23 37:0.71 43:0.94 45:1.18 49:0.119 50:0.158 51:0.119 55:2.565 56:19.0 57:295.0 
0.5703475039082683 2:0.1 5:0.1 6:0.21 8:0.1 12:1.19 19:0.1 25:0.87 30:0.1 33:0.1 36:0.43 44:0.1 50:0.047 53:0.031 55:1.793 56:12.0 57:391.0 
0.7454784521773495 16:0.38 18:0.38 19:2.31 21:0.77 45:0.38 50:0.216 52:0.162 54:0.054 55:5.07 56:70.0 57:289.0 
0.2646444500418624 10:1.72 25:1.72 26:1.72 28:3.44 50:0.588 52:0.294 55:3.714 56:11.0 57:78.0 
1.0 1:0.1 6:0.1 8:0.52 10:0.1 12:1.9 13:0.1 14:0.1 16:0.1 17:0.21 25:3.17 36:0.1 37:0.1 44:0.1 49:0.027 50:0.138 52:0.041 53:0.041 55:2.321 56:31.0 57:469.0 
0.8158283960141184 3:1.33 5:1.33 21:1.33 25:8.0 26:8.0 37:1.33 38:4.0 39:1.33 42:4.0 49:0.865 51:0.216 55:1.647 56:12.0 57:28.0 
0.09297854601670738 3:1.2 19:3.61 21:2.4 46:1.2 55:1.2 56:3.0 57:24.0 
0.6288826381268384 19:9.09 27:9.09 45:9.09 55:1.0 56:1.0 57:6.0 
0.6949969172598337 2:2.4 5:0.8 19:2.4 25:1.6 37:0.8 42:1.6 46:0.8 49:0.12 55:1.696 56:15.0 57:56.0 
1.0 10:0.7 27:0.7 50:0.227 51:0.227 55:4.043 56:28.0 57:186.0 
0.049039269468453765 8:5.88 55:1.0 56:1.0 57:10.0 
0.14503049243374275 5:0.34 8:0.34 10:1.7 12:1.36 13:0.34 17:0.34 19:1.36 25:0.34 26:0.34 27:1.02 35:0.34 37:0.34 44:2.38 50:0.055 51:0.11 55:1.421 56:8.0 57:91.0 
0.2999739433152713 1:0.44 2:0.22 3:0.22 5:0.44 8:0.22 10:0.22 12:0.44 19:1.57 25:0.44 26:0.22 27:1.12 28:0.22 29:0.22 30:0.22 31:0.22 32:0.22 34:0.22 35:0.22 36:0.22 37:0.22 40:0.22 42:0.22 43:0.22 45:0.67 46:0.44 49:0.033 50:0.169 51:0.033 52:0.033 53:0.033 55:2.28 56:12.0 57:203.0 
0.10081634124134885 10:0.58 19:0.58 46:0.58 50:0.083 55:6.096 56:21.0 57:189.0 
0.36923790777004795 2:9.52 10:4.76 45:4.76 55:1.0 56:1.0 57:10.0 
0.46086995009196957 27:20.0 55:2.0 56:5.0 57:8.0 
1.0 19:1.32 25:1.98 26:3.97 30:0.66 36:0.66 52:0.102 55:2.531 56:30.0 57:81.0 
0.44208890411706814 1:0.68 3:1.02 19:1.36 25:0.34 26:0.34 27:0.68 28:0.34 30:0.34 35:0.34 39:0.34 41:0.34 45:1.02 46:0.34 50:0.172 52:0.387 55:1.5 56:15.0 57:84.0 
1.0 25:2.22 28:4.44 29:2.22 35:4.44 42:2.22 55:3.578 56:20.0 57:68.0 
0.7909066668032074 10:1.25 12:1.25 19:2.5 21:1.25 25:1.25 26:1.25 39:1.25 45:1.25 46:1.25 53:0.204 55:2.45 56:15.0 57:49.0 
0.5728466591229993 25:3.5 26:2.63 27:3.5 28:2.63 29:1.75 30:1.75 31:0.87 32:0.87 34:0.87 35:1.75 36:0.87 37:0.87 39:2.63 40:0.87 43:0.87 45:1.75 50:0.49 51:0.122 52:0.122 55:2.203 56:12.0 57:130.0 
1.0 1:0.06 6:0.12 10:0.12 12:0.19 15:0.06 16:0.19 17:0.12 19:1.74 20:0.06 21:1.23 23:0.25 24:0.06 25:2.26 26:0.38 27:0.06 28:0.19 30:0.19 31:0.32 35:0.25 37:0.32 39:0.19 45:0.06 48:0.12 50:0.33 51:0.018 52:0.064 53:0.055 55:2.024 56:25.0 57:897.0 
0.9920807675879246 1:0.38 3:0.64 5:0.12 6:0.25 12:0.25 17:0.25 18:0.12 19:1.03 21:0.38 25:0.9 26:0.38 27:0.25 28:0.25 29:0.64 30:0.25 35:0.12 36:0.51 42:0.12 44:0.25 48:0.25 50:0.082 52:0.02 55:1.491 56:11.0 57:267.0 
0.7302716118058675 8:1.57 10:1.57 12:1.57 19:1.57 21:1.57 25:3.14 26:2.36 27:0.78 28:0.78 29:0.78 30:0.78 31:0.78 32:0.78 34:0.78 35:0.78 36:0.78 39:0.78 40:0.78 45:0.78 50:0.372 55:3.971 56:34.0 57:139.0 
0.47069748271271067 46:9.09 55:3.0 56:5.0 57:15.0 
1.0 6:0.32 8:0.64 12:1.6 14:0.32 18:0.32 19:0.32 25:0.32 26:0.32 28:0.32 50:0.08 55:4.295 56:87.0 57:262.0 
0.891180624109073 3:0.21 6:0.21 19:1.95 21:0.21 49:0.131 50:0.175 55:1.0 56:1.0 57:68.0 
1.0 3:0.36 5:0.36 12:0.36 25:6.25 26:5.51 37:1.47 49:0.279 50:0.767 51:0.139 55:3.722 56:20.0 57:268.0 
0.33655465360749093 3:2.32 50:0.854 55:1.823 56:8.0 57:31.0 
0.13646156388450792 19:1.72 25:6.89 26:3.44 30:3.44 35:1.72 55:2.16 56:11.0 57:54.0 
1.0 1:0.1 2:0.05 3:0.1 5:0.31 6:0.1 10:0.05 12:0.31 13:0.05 16:0.1 17:0.1 19:0.84 20:0.05 21:0.63 24:0.05 25:1.47 26:0.36 28:0.05 30:0.21 31:0.1 35:0.1 36:0.15 37:0.21 39:0.36 45:0.1 48:0.15 49:0.007 50:0.168 52:0.038 53:0.061 54:0.007 55:1.704 56:25.0 57:939.0 
1.0 10:0.58 19:2.9 25:1.74 26:1.16 27:1.16 28:1.74 29:0.58 30:1.16 31:0.58 32:0.58 34:0.58 35:0.58 36:1.16 37:0.58 39:0.58 40:0.58 43:0.58 45:0.58 50:0.379 55:2.222 56:12.0 57:140.0 
1.0 3:0.36 5:0.73 12:0.36 13:0.18 16:0.36 19:1.28 21:0.36 25:0.36 26:1.28 37:0.36 43:0.18 45:0.18 49:0.027 52:0.055 55:3.176 56:51.0 57:270.0 
0.7813780824948744 2:14.28 55:1.8 56:5.0 57:9.0 
0.4076459670434885 8:1.08 12:1.62 29:0.54 37:0.54 38:0.54 48:0.54 50:0.166 52:0.083 55:1.528 56:13.0 57:81.0 
1.0 3:0.2 9:0.2 10:0.41 19:1.45 21:0.2 26:0.2 27:0.2 29:0.2 44:1.45 50:0.329 52:0.109 54:0.365 55:1.187 56:11.0 57:114.0 
1.0 5:1.05 19:1.05 27:1.05 52:0.181 55:2.0 56:7.0 57:22.0 
0.2851034108809011 10:3.7 19:3.7 21:7.4 29:3.7 55:2.0 56:4.0 57:8.0 
0.21691327290735238 19:0.97 37:1.94 39:1.94 41:1.94 43:1.94 45:1.94 46:1.94 49:0.147 50:0.147 51:0.294 55:1.789 56:12.0 57:68.0 
1.0 12:0.89 19:3.57 21:2.67 55:2.375 56:23.0 57:38.0 
0.5535993388551637 25:11.11 55:1.4 56:2.0 57:7.0 
0.19856203376815232 3:1.03 5:2.06 19:1.03 29:1.03 44:1.03 45:1.03 49:0.373 50:0.186 55:1.529 56:5.0 57:26.0 
1.0 1:0.33 2:0.33 3:0.99 6:0.66 12:0.33 19:2.65 21:0.33 25:1.99 41:0.33 45:0.33 52:0.051 55:1.786 56:28.0 57:134.0 
0.7087686605656731 1:0.31 3:0.62 6:0.31 12:1.88 19:0.62 44:0.31 45:0.31 46:0.31 50:0.232 55:1.142 56:3.0 57:88.0 
1.0 3:0.52 5:0.52 10:2.11 19:0.52 21:0.52 25:1.58 26:1.05 27:1.05 28:0.52 29:0.52 30:0.52 31:0.52 32:0.52 34:0.52 35:0.52 36:0.52 37:0.52 39:0.52 40:0.52 43:0.52 45:0.52 49:0.171 50:0.513 51:0.085 55:2.225 56:13.0 57:158.0 
0.9033925570438299 10:1.31 12:1.31 19:6.57 25:2.63 26:1.31 27:2.63 28:1.31 29:1.31 30:1.31 31:1.31 32:1.31 34:1.31 35:1.31 36:1.31 37:1.31 40:1.31 43:1.31 45:1.31 50:0.649 55:2.214 56:13.0 57:62.0 
0.07927157987243665 1:0.36 2:0.36 5:1.8 12:1.44 17:0.72 19:0.36 21:1.08 25:1.8 29:0.72 30:0.36 37:0.36 55:1.636 56:12.0 57:54.0 
1.0 16:1.02 46:1.02 50:0.344 52:0.344 53:0.172 55:2.166 56:11.0 57:39.0 
0.7816811241021141 3:0.58 17:1.16 18:0.58 19:0.58 25:1.16 26:0.58 27:1.16 28:1.74 29:0.58 30:0.58 31:0.58 32:0.58 34:0.58 35:0.58 36:0.58 40:0.58 45:0.58 50:0.658 52:0.282 55:1.932 56:11.0 57:114.0 
1.0 3:0.22 12:0.22 19:1.11 21:0.22 22:7.12 39:0.22 49:3.125 52:0.24 54:0.28 55:5.397 56:43.0 57:448.0 
1.0 1:0.25 2:0.25 5:0.25 7:0.25 10:0.25 11:0.25 13:0.25 16:0.25 18:1.02 19:2.05 21:2.31 41:0.25 45:0.51 46:0.25 52:0.413 54:0.165 55:1.78 56:13.0 57:146.0 
0.9495405806679507 27:33.33 55:1.0 56:1.0 57:3.0 
0.5870228887162192 2:1.28 12:1.28 19:2.56 21:1.28 25:5.12 50:0.196 55:1.952 56:10.0 57:41.0 
1.0 2:0.44 3:0.44 5:0.44 7:0.22 10:2.43 11:1.1 12:0.44 18:1.55 19:2.88 21:2.21 27:0.22 40:0.22 50:0.036 52:0.073 53:0.146 54:0.036 55:2.574 56:22.0 57:224.0 
0.1026011516074706 12:3.57 25:3.57 26:3.57 55:1.545 56:3.0 57:17.0 
1.0 2:0.04 3:0.23 5:0.09 8:0.04 9:0.04 10:0.04 11:0.04 12:0.74 16:0.13 17:0.04 18:0.04 19:0.93 21:0.65 25:1.49 26:0.32 28:0.23 30:0.18 31:0.18 35:0.23 37:0.32 39:0.04 40:0.04 42:0.18 44:0.13 48:0.04 49:0.027 50:0.184 52:0.047 53:0.061 55:1.686 56:20.0 57:1184.0 
1.0 1:0.58 5:0.19 6:0.19 9:0.38 10:0.19 12:2.32 16:0.19 19:2.51 21:1.16 25:0.19 26:0.58 37:0.19 44:0.38 50:0.251 54:0.071 55:2.08 56:11.0 57:156.0 
0.5608926075393288 12:1.4 17:0.7 19:1.4 21:1.4 27:0.7 31:0.7 35:1.4 40:2.11 50:0.267 51:0.066 55:17.952 56:200.0 57:377.0 
0.654888244935214 11:0.38 12:0.19 19:1.33 21:0.38 25:0.19 40:0.19 50:0.154 52:0.03 54:0.03 55:2.852 56:12.0 57:388.0 
0.5989572222227035 10:1.19 19:1.19 37:1.19 46:9.52 55:2.074 56:15.0 57:56.0 
1.0 1:0.29 3:0.44 5:0.73 12:0.58 16:0.14 19:0.73 20:0.14 21:0.29 37:0.29 42:0.14 44:0.14 48:1.32 49:0.02 50:0.321 51:0.18 52:0.14 55:1.891 56:24.0 57:522.0 
0.8677085368632742 1:0.1 2:0.72 3:0.62 5:0.62 6:0.1 7:0.2 8:0.2 11:0.1 12:0.51 18:0.82 19:3.61 21:0.93 23:0.1 43:0.2 46:0.41 50:0.122 52:0.157 55:2.213 56:29.0 57:425.0 
1.0 3:1.25 5:0.62 12:1.25 16:1.88 19:4.4 24:1.25 50:0.327 53:0.109 54:0.109 55:1.705 56:9.0 57:58.0 
1.0 1:0.13 2:0.4 10:0.53 17:0.13 19:0.8 21:0.53 34:0.13 37:1.2 46:0.53 48:0.13 50:0.25 52:0.014 53:0.427 54:0.044 55:5.473 56:143.0 57:1538.0 
1.0 12:2.81 16:0.35 18:0.35 19:0.35 25:0.35 37:0.35 50:0.293 55:1.226 56:5.0 57:146.0 
1.0 3:0.81 5:0.27 10:0.27 12:0.27 13:0.27 19:2.16 21:0.54 45:0.54 46:0.27 49:0.045 50:0.091 52:0.045 55:2.078 56:47.0 57:106.0 
1.0 3:0.23 5:0.92 9:0.23 12:0.92 14:0.92 17:0.23 21:0.23 25:0.23 28:0.23 31:0.23 35:0.23 37:0.23 42:0.92 50:0.13 51:0.026 52:0.026 54:0.026 55:2.222 56:23.0 57:480.0 
0.4045049220203531 50:0.769 55:3.75 56:9.0 57:15.0 
1.0 1:0.11 2:0.11 3:0.34 5:0.11 9:1.02 12:0.45 16:0.11 19:0.45 21:0.22 25:0.56 26:0.68 27:0.11 33:0.34 37:0.22 40:0.11 42:0.11 49:0.103 50:0.177 51:0.029 53:0.029 55:4.296 56:81.0 57:653.0 
1.0 5:5.55 12:5.55 29:11.11 42:11.11 55:1.222 56:3.0 57:11.0 
1.0 2:0.25 3:0.12 5:0.37 8:0.12 10:0.37 11:0.25 12:0.37 13:0.12 17:0.12 19:0.37 21:0.12 23:0.12 25:2.51 30:0.25 33:0.12 37:0.12 49:0.016 50:0.05 52:0.05 55:2.414 56:25.0 57:367.0 
0.8977885125112183 10:1.86 12:1.24 25:2.48 26:1.24 27:1.24 28:1.86 29:0.62 30:0.62 31:0.62 32:0.62 34:0.62 35:0.62 36:1.24 39:0.62 40:0.62 43:0.62 45:0.62 49:0.189 50:0.757 55:2.63 56:16.0 57:171.0 
1.0 2:0.68 3:0.34 8:0.34 11:0.34 16:1.72 19:1.03 21:2.06 40:0.34 45:0.34 50:0.046 55:3.344 56:107.0 57:194.0 
0.8709751266738638 3:0.28 5:0.28 12:0.84 19:0.28 25:1.69 28:0.56 35:0.56 36:2.54 37:0.28 39:0.28 44:0.28 49:0.217 50:0.072 55:1.948 56:55.0 57:191.0 
1.0 1:0.02 3:0.1 5:0.05 6:0.05 8:0.13 9:0.3 12:0.13 18:0.02 19:0.1 21:0.08 25:0.46 26:0.49 27:0.02 33:0.27 37:0.41 39:0.13 49:0.166 50:0.158 51:0.047 53:0.007 55:2.984 56:52.0 57:1758.0 
1.0 12:0.59 19:2.38 21:1.19 25:1.19 26:1.19 50:0.103 55:3.086 56:55.0 57:142.0 
0.9146424590019412 3:0.5 12:0.5 23:0.5 25:1.52 26:2.03 29:1.52 30:1.52 37:1.01 44:0.5 52:0.122 53:0.061 55:4.309 56:38.0 57:237.0 
1.0 2:0.1 8:0.2 12:0.3 17:0.05 18:0.05 19:0.05 25:0.3 26:0.2 28:0.05 30:0.05 33:0.05 36:0.2 37:0.41 44:0.1 45:0.05 46:0.2 48:0.35 50:0.141 55:1.997 56:87.0 57:1620.0 
0.8706203578944892 5:0.27 8:0.55 10:0.55 12:0.55 25:6.64 26:4.15 27:0.83 28:0.27 29:1.66 30:0.27 31:0.27 32:0.27 34:0.27 35:0.27 36:0.27 37:1.38 40:0.27 42:0.27 43:0.27 45:0.55 49:0.183 50:0.549 51:0.137 55:4.257 56:57.0 57:430.0 
1.0 2:0.77 3:0.77 5:0.77 6:0.38 12:1.16 15:1.16 18:0.38 19:3.48 21:1.16 37:0.38 50:0.067 55:1.225 56:5.0 57:49.0 
0.6143562786274358 1:0.26 10:0.53 12:3.76 19:0.26 25:3.76 26:2.68 30:0.26 35:0.26 50:0.55 52:0.045 55:1.837 56:11.0 57:158.0 
1.0 1:0.4 3:0.81 16:0.4 18:0.81 19:1.22 21:0.81 45:1.22 50:0.223 54:0.055 55:4.75 56:70.0 57:266.0 
1.0 3:0.29 19:0.29 35:0.29 36:1.17 42:0.58 44:0.29 45:0.29 50:0.178 52:0.044 55:1.666 56:10.0 57:180.0 
0.34895821180758885 25:6.0 26:4.0 37:1.0 42:1.0 48:1.0 49:0.343 51:0.171 55:1.725 56:13.0 57:69.0 
0.9226934135490001 2:0.32 3:0.96 10:0.64 12:1.28 19:3.52 21:1.6 25:0.96 26:1.6 30:0.64 37:0.32 50:0.064 52:0.128 55:1.653 56:5.0 57:86.0 
0.23400323542633505 5:1.56 19:3.12 25:3.12 26:1.56 27:1.56 28:1.56 29:1.56 30:1.56 31:1.56 32:1.56 34:1.56 35:1.56 36:1.56 40:1.56 44:1.56 50:0.53 55:2.533 56:11.0 57:38.0 
0.9352304605936391 3:0.08 6:0.16 8:0.08 9:0.08 11:0.08 12:0.92 13:0.08 14:0.08 17:0.16 25:3.53 33:0.25 37:0.08 44:0.16 49:0.069 50:0.103 53:0.011 55:2.44 56:18.0 57:598.0 
0.2619897909625499 12:4.65 14:2.32 52:0.448 55:2.0 56:4.0 57:28.0 
0.871110976615887 5:0.13 8:0.55 12:0.13 13:0.13 17:0.27 23:0.41 25:2.79 36:0.13 37:0.27 49:0.071 50:0.143 53:0.053 55:2.662 56:22.0 57:418.0 
1.0 10:2.43 12:2.43 21:2.43 48:2.43 55:5.3 56:40.0 57:53.0 
1.0 2:1.33 5:1.33 21:1.33 27:1.33 32:1.33 34:1.33 50:0.681 52:0.227 55:2.037 56:22.0 57:55.0 
0.5992218764052517 12:1.02 18:1.02 19:2.04 25:2.04 26:1.02 39:1.02 50:0.188 55:3.9 56:13.0 57:78.0 
1.0 1:0.13 3:0.13 5:0.27 6:0.27 12:0.41 13:0.27 19:1.25 21:0.27 39:0.13 45:0.27 46:0.13 50:0.294 52:0.514 55:1.409 56:17.0 57:172.0 
0.3952314067565024 19:3.79 55:1.0 56:1.0 57:1.0 
1.0 3:0.13 5:0.2 12:0.6 13:0.06 16:0.13 19:0.73 20:0.06 21:0.73 25:1.6 26:0.33 28:0.13 31:0.26 35:0.33 36:0.13 37:0.4 45:0.13 46:0.06 48:0.2 50:0.208 52:0.028 53:0.075 55:2.068 56:29.0 57:871.0 
1.0 44:16.66 55:1.5 56:3.0 57:6.0 
1.0 3:0.28 5:0.28 12:0.85 19:0.28 25:1.7 28:0.56 35:0.56 36:2.55 37:0.28 39:0.28 44:0.28 49:0.223 50:0.074 55:1.958 56:55.0 57:190.0 
1.0 1:0.1 3:0.3 5:0.05 6:0.15 8:0.25 9:0.3 10:0.1 11:0.2 12:0.65 16:0.25 17:0.05 19:0.55 21:0.65 23:0.05 25:1.3 26:0.35 28:0.15 30:0.25 31:0.2 35:0.2 36:0.05 37:0.25 40:0.05 44:0.3 45:0.15 47:0.05 49:0.014 50:0.139 52:0.022 53:0.058 55:1.979 56:23.0 57:1081.0 
1.0 12:2.4 19:1.2 35:1.2 42:2.4 50:0.166 55:2.2 56:22.0 57:55.0 
1.0 3:0.9 10:0.45 16:0.45 18:0.45 21:0.9 37:0.45 45:0.45 46:0.45 49:0.056 50:0.227 52:0.056 54:0.056 55:5.8 56:70.0 57:290.0 
0.771356410252946 3:2.77 19:8.33 55:1.214 56:4.0 57:17.0 
0.5061351702268715 3:0.38 12:1.53 14:0.38 17:0.76 19:0.76 25:3.84 26:1.53 27:0.38 28:0.38 29:1.53 30:0.38 31:0.38 32:0.38 34:0.38 35:0.38 36:1.15 37:0.38 40:0.38 43:0.38 45:0.76 50:0.163 51:0.054 55:2.297 56:17.0 57:193.0 
0.1403282973359567 27:25.0 55:2.333 56:5.0 57:7.0 
1.0 8:0.56 19:1.12 39:1.12 45:1.12 46:0.56 50:0.181 51:0.09 52:0.181 55:4.5 56:34.0 57:153.0 
1.0 1:0.05 3:0.1 5:0.16 6:0.05 9:0.48 12:0.16 18:0.05 19:0.21 21:0.16 25:0.64 26:0.69 27:0.05 33:0.26 36:0.16 37:0.75 45:0.05 49:0.172 50:0.195 51:0.062 53:0.015 55:2.758 56:47.0 57:1073.0 
0.6824959016362914 3:0.86 16:0.57 19:3.17 21:0.28 25:0.57 45:0.86 50:0.196 52:0.049 53:0.147 55:1.1 56:2.0 57:55.0 
0.6346397099236267 19:5.0 27:2.5 52:0.833 54:0.416 55:1.937 56:8.0 57:31.0 
0.9275152821581184 21:0.32 45:0.32 49:0.218 50:0.218 52:0.054 55:2.16 56:9.0 57:108.0 
1.0 1:0.07 2:0.03 3:0.18 5:0.1 6:0.03 9:0.4 12:0.1 18:0.03 19:0.14 21:0.1 25:0.47 26:0.5 27:0.03 33:0.76 37:0.32 41:0.07 49:0.188 50:0.148 51:0.035 53:0.01 55:3.233 56:66.0 57:1387.0 
1.0 1:0.43 3:0.43 6:0.21 10:0.21 12:0.21 13:0.21 19:1.08 21:0.43 25:0.43 26:0.43 28:0.43 30:0.21 35:0.43 40:0.21 47:0.65 49:0.034 50:0.238 51:0.136 55:3.372 56:75.0 57:344.0 
0.0788528806121561 19:0.97 21:0.97 25:1.94 26:0.97 28:2.91 35:1.94 50:0.141 55:3.178 56:15.0 57:89.0 
0.5445900062754878 6:0.17 12:0.52 13:0.17 17:0.69 21:0.17 25:1.04 29:0.34 30:0.34 36:1.04 40:0.17 44:0.52 50:0.055 55:1.685 56:7.0 57:204.0 
0.2093160103472031 12:1.78 43:1.78 50:0.336 55:1.909 56:5.0 57:21.0 
1.0 3:2.43 9:0.27 12:2.16 19:0.27 21:1.62 25:0.27 26:0.54 29:0.27 33:0.27 40:0.27 50:0.344 55:2.319 56:12.0 57:167.0 
0.8003022376763448 25:9.09 26:9.09 42:9.09 55:1.25 56:2.0 57:5.0 
0.9428909219612811 12:1.29 19:2.59 21:2.59 39:0.64 45:0.64 55:1.5 56:5.0 57:51.0 
0.28263934322929374 25:7.69 26:2.56 55:2.0 56:6.0 57:24.0 
0.5233868082164138 3:0.65 5:0.65 12:0.65 17:0.65 25:0.65 26:3.26 30:0.65 37:0.65 39:0.65 43:0.65 45:0.65 49:0.093 52:0.093 55:1.705 56:17.0 57:87.0 
0.6319005811788379 27:8.33 48:8.33 55:1.5 56:3.0 57:12.0 
1.0 2:0.22 3:0.22 5:0.45 7:0.22 10:1.82 12:0.68 16:0.68 17:0.22 19:2.05 20:0.45 21:1.59 27:0.22 37:0.91 50:0.101 52:0.135 53:0.067 55:2.5 56:27.0 57:210.0 
1.0 19:1.01 37:1.01 46:5.05 55:3.043 56:15.0 57:70.0 
1.0 2:0.16 3:0.49 6:0.16 10:0.49 12:0.16 13:0.32 19:1.3 21:0.32 37:0.16 45:0.16 46:0.16 50:0.119 52:0.149 55:2.178 56:107.0 57:244.0 
0.20829157649722285 19:6.25 27:6.25 33:6.25 45:6.25 55:1.285 56:3.0 57:9.0 
1.0 12:1.31 16:1.31 18:1.31 21:3.94 24:1.31 46:1.31 51:0.194 55:5.2 56:55.0 57:104.0 
1.0 19:1.69 21:1.69 28:3.38 46:1.69 50:0.296 55:3.315 56:13.0 57:63.0 
0.9485410684360481 26:16.66 55:2.0 56:4.0 57:6.0 
1.0 3:0.29 5:0.59 9:0.29 14:1.79 17:0.29 21:0.59 25:0.59 37:0.29 42:2.69 50:0.052 52:0.078 54:0.235 55:3.153 56:121.0 57:618.0 
1.0 21:4.16 45:8.33 51:0.68 52:0.68 55:2.9 56:18.0 57:29.0 
0.1317318602152565 45:7.69 55:1.333 56:2.0 57:4.0 
1.0 19:14.28 21:7.14 45:7.14 55:1.0 56:1.0 57:3.0 
1.0 3:0.09 12:0.47 13:0.66 16:0.09 19:1.23 21:0.09 45:0.37 46:0.09 50:0.033 55:1.536 56:47.0 57:192.0 
1.0 1:0.23 3:0.47 7:0.23 10:0.47 19:1.17 21:0.23 25:1.64 26:0.7 27:0.7 28:1.17 29:0.23 30:0.23 31:0.23 32:0.23 34:0.23 35:0.23 36:0.7 37:0.47 39:0.23 40:0.23 43:0.47 45:0.7 50:0.237 55:2.42 56:12.0 57:334.0 
0.44435764720741633 27:20.0 55:1.0 56:1.0 57:4.0 
0.23641602254522517 10:2.77 19:2.77 21:5.55 45:2.77 52:0.438 55:1.214 56:3.0 57:17.0 
0.9864887789193408 25:9.52 26:4.76 27:4.76 28:4.76 29:4.76 30:4.76 31:4.76 32:4.76 34:4.76 35:4.76 36:4.76 40:4.76 50:1.257 55:3.333 56:11.0 57:30.0 
0.6656714839531301 3:0.91 12:0.91 13:0.91 19:5.5 21:0.91 24:1.83 45:0.91 46:0.91 52:0.13 55:2.457 56:47.0 57:86.0 
1.0 8:0.83 25:0.83 26:0.41 28:0.41 29:0.41 35:0.41 36:0.41 37:0.41 50:0.159 55:1.848 56:13.0 57:122.0 
1.0 1:0.54 3:0.27 9:0.27 10:0.54 12:0.81 18:0.27 19:1.08 21:0.81 25:0.81 26:0.81 28:1.08 30:0.54 33:0.27 35:1.08 47:0.27 49:0.039 50:0.318 51:0.079 55:4.971 56:76.0 57:517.0 
1.0 19:1.92 35:1.92 42:3.84 52:0.26 55:2.2 56:10.0 57:44.0 
1.0 1:0.15 2:0.1 5:0.3 6:0.15 8:0.3 12:0.6 19:2.06 21:0.85 23:0.05 25:0.2 33:0.25 35:0.15 37:0.35 44:0.05 49:0.073 50:0.234 52:0.073 55:2.206 56:49.0 57:1026.0 
0.8971499345401671 13:1.26 19:2.53 21:1.26 46:1.26 55:4.352 56:47.0 57:74.0 
0.8648918404469635 27:2.12 50:0.735 55:3.0 56:7.0 57:48.0 
0.5987643438712833 2:1.96 14:0.98 19:1.96 21:0.98 25:1.96 26:1.96 27:1.96 43:0.98 46:3.92 55:3.129 56:17.0 57:97.0 
0.5787410040212331 46:10.0 52:3.26 55:1.0 56:1.0 57:5.0 
1.0 19:2.32 21:1.16 28:1.16 30:2.32 50:0.408 55:2.125 56:17.0 57:51.0 
0.030912113318052516 8:0.86 12:2.58 17:0.86 19:2.58 25:1.72 30:0.86 36:0.86 52:0.141 55:1.535 56:8.0 57:43.0 
1.0 2:0.31 8:0.31 12:0.62 18:0.31 37:0.62 39:0.31 41:1.24 43:0.31 46:1.24 50:0.088 51:0.044 55:3.086 56:34.0 57:250.0 
1.0 10:0.69 12:2.09 19:4.19 21:0.69 25:1.39 26:3.49 28:1.39 29:0.69 30:0.69 35:0.69 36:1.39 50:0.281 53:0.093 55:2.744 56:12.0 57:129.0 
1.0 2:1.25 9:0.62 10:1.25 19:1.87 21:1.25 25:1.87 26:1.87 27:1.25 28:1.87 29:0.62 30:1.87 31:0.62 32:0.62 34:0.62 35:1.87 36:0.62 37:1.87 39:0.62 40:0.62 43:0.62 45:1.87 50:0.475 51:0.57 55:2.238 56:12.0 57:141.0 
1.0 3:0.24 10:0.48 12:0.24 17:0.48 18:0.24 19:0.72 20:0.48 21:0.72 25:1.69 50:0.035 55:3.179 56:87.0 57:283.0 
0.08949762936005079 3:2.0 18:2.0 25:4.0 26:2.0 28:2.0 30:2.0 31:2.0 35:2.0 36:2.0 50:0.18 55:1.611 56:10.0 57:29.0 
1.0 6:1.03 8:2.07 50:0.144 51:0.072 55:1.523 56:11.0 57:64.0 
1.0 10:1.96 18:1.96 19:1.96 28:1.96 50:0.373 55:1.857 56:11.0 57:26.0 
0.5434639905319871 1:0.39 5:1.17 10:0.39 12:1.17 18:0.39 19:3.12 20:0.39 21:1.17 27:0.39 28:0.78 40:0.39 49:0.07 50:0.07 52:0.07 55:2.069 56:13.0 57:89.0 
0.8722892393880406 13:1.08 19:2.17 37:1.08 41:3.26 46:3.26 55:3.066 56:10.0 57:46.0 
0.8727960763871111 1:0.11 3:0.33 10:0.11 12:0.45 16:0.11 17:0.11 19:2.81 21:0.9 37:0.11 42:0.22 45:0.33 46:0.56 49:0.017 50:0.136 52:0.051 54:0.017 55:2.944 56:63.0 57:427.0 
1.0 5:0.6 12:0.6 19:3.01 27:1.8 32:0.6 34:0.6 37:0.6 39:0.6 43:0.6 45:1.2 50:0.085 51:0.085 52:0.085 55:1.735 56:22.0 57:92.0 
0.008415849526156665 3:1.31 12:2.63 18:1.31 25:2.63 26:1.31 28:1.31 30:1.31 31:1.31 35:1.31 36:1.31 37:3.94 50:0.15 52:0.15 55:1.906 56:10.0 57:61.0 
0.8433450436860124 19:3.38 21:1.69 25:1.69 26:1.69 27:1.69 39:1.69 45:1.69 50:0.315 53:0.63 55:3.083 56:12.0 57:37.0 
1.0 5:1.05 33:1.58 50:0.072 55:1.486 56:10.0 57:55.0 
0.9167448987195388 2:0.8 5:0.6 8:0.2 10:0.2 16:1.8 18:2.2 19:1.8 21:2.81 45:0.2 46:0.2 52:0.06 55:2.533 56:43.0 57:228.0 
0.4527317419330666 3:0.65 13:0.65 19:4.6 21:0.65 45:1.97 46:0.65 52:0.125 55:1.25 56:5.0 57:40.0 
1.0 19:2.04 33:2.04 35:2.04 52:0.286 55:2.434 56:17.0 57:56.0 
0.4508720624711059 3:0.34 5:0.34 12:0.34 13:0.34 19:0.34 21:0.34 25:0.34 26:0.69 36:0.34 37:1.04 43:0.34 50:0.149 55:2.35 56:14.0 57:188.0 
0.29720611582495043 25:4.65 26:2.32 27:2.32 28:2.32 29:2.32 30:2.32 31:2.32 32:2.32 34:2.32 35:2.32 36:2.32 40:2.32 50:0.757 55:2.5 56:11.0 57:50.0 
0.735070772022563 1:1.49 12:1.49 19:4.47 21:1.49 26:1.49 44:1.49 55:1.933 56:8.0 57:29.0 
0.11263395106770001 12:0.86 29:0.86 33:4.74 36:0.86 44:0.43 50:0.062 55:1.21 56:6.0 57:69.0 
0.39066126865035694 5:0.81 10:1.22 12:0.4 19:0.4 21:0.4 25:4.08 26:4.08 30:1.22 55:1.754 56:8.0 57:93.0 
0.5667697465737965 12:1.75 19:0.29 25:1.75 26:0.29 28:0.58 35:0.29 36:0.29 37:0.58 45:0.29 50:0.091 52:0.045 55:2.333 56:15.0 57:175.0 
0.5811763067741189 12:1.4 17:0.7 19:1.4 21:1.4 27:0.7 31:0.7 40:2.11 50:0.266 51:0.066 55:18.0 56:200.0 57:378.0 
0.026917675157437863 5:0.35 6:0.35 19:1.79 21:0.71 25:0.35 46:0.35 50:0.064 55:1.27 56:8.0 57:61.0 
1.0 9:0.13 12:0.27 25:1.38 26:1.52 33:1.38 37:1.25 39:0.27 41:0.69 46:2.63 47:0.27 49:0.125 50:0.438 51:0.146 55:3.657 56:35.0 57:534.0 
0.879388318542012 3:0.28 8:0.28 9:0.28 10:0.57 12:0.57 21:0.57 25:5.2 26:6.06 45:0.28 47:0.28 50:0.04 55:1.883 56:9.0 57:211.0 
0.8954887356459166 9:5.26 17:2.63 19:2.63 21:5.26 55:2.058 56:11.0 57:35.0 
0.6615247217936978 16:7.69 19:7.69 55:1.0 56:1.0 57:6.0 
1.0 6:0.78 12:0.78 19:0.78 25:0.78 26:0.78 28:0.78 35:0.78 36:0.78 44:0.78 50:0.451 54:0.112 55:2.714 56:22.0 57:133.0 
-1.0 5:1.28 7:1.28 16:0.64 18:1.28 19:1.28 21:0.64 52:0.085 53:0.17 55:2.466 56:18.0 57:111.0 
-0.8744580510891862 2:0.02 3:0.05 5:0.02 8:0.05 10:0.35 12:0.02 16:0.05 17:0.1 18:0.38 19:0.07 20:0.2 21:0.17 25:0.02 50:0.004 52:0.112 53:0.018 54:0.018 55:3.922 56:489.0 57:3271.0 
-0.8747678056840856 1:0.1 2:0.2 3:1.01 5:0.8 6:0.8 7:0.5 9:0.8 10:0.1 11:0.3 12:0.7 13:0.3 15:1.61 16:0.1 18:1.11 19:1.31 20:0.2 21:0.7 23:0.6 24:0.1 43:0.2 45:0.1 46:0.1 50:0.11 52:0.49 53:0.158 54:0.015 55:8.55 56:669.0 57:1351.0 
-0.8743547543307729 1:0.22 2:0.88 3:0.44 5:0.22 9:1.32 10:1.54 12:0.88 13:0.66 15:1.1 16:0.66 18:1.54 19:2.87 21:1.54 24:0.22 40:0.44 50:0.085 52:0.659 53:0.114 54:0.028 55:9.1 56:65.0 57:728.0 
-1.0 1:0.14 3:0.29 5:0.14 12:0.14 13:0.29 16:0.29 19:2.19 21:1.02 24:0.43 34:0.14 45:0.29 49:0.05 50:0.382 52:0.764 55:2.468 56:28.0 57:469.0 
-0.8744803231039926 1:0.09 3:0.09 5:0.39 6:0.09 7:0.09 9:0.19 10:0.29 11:0.39 12:0.48 14:0.58 16:0.87 17:0.19 19:1.66 20:4.1 21:1.66 23:0.39 24:0.19 50:0.136 52:0.318 53:0.151 55:6.813 56:494.0 57:1458.0 
-0.747700521274718 3:0.57 4:0.57 8:0.28 13:0.28 17:0.28 18:0.57 19:2.89 20:0.86 21:1.73 24:0.28 50:0.461 52:1.385 54:0.046 55:3.535 56:64.0 57:396.0 
-0.5995663672617833 3:0.21 5:0.21 12:0.84 16:0.21 28:0.42 36:0.42 39:0.21 46:1.48 50:0.057 55:2.807 56:39.0 57:379.0 
-0.6802544229875298 3:0.68 5:0.68 7:0.68 10:0.68 12:0.68 18:4.1 19:4.1 21:0.68 23:1.36 40:1.36 52:1.089 53:0.242 55:3.488 56:60.0 57:157.0 
-0.6884834051230593 3:2.99 4:0.42 5:0.42 7:0.85 11:0.42 12:0.42 16:0.42 18:1.28 19:3.41 21:1.7 50:0.204 52:0.819 55:4.84 56:42.0 57:363.0 
-1.0 1:0.44 3:0.88 5:0.44 6:1.32 7:0.44 18:0.44 19:1.76 21:2.2 23:2.2 49:0.215 52:0.43 53:0.358 55:2.403 56:16.0 57:137.0 
-0.7433207423153904 1:0.35 2:0.46 3:0.31 5:0.15 6:0.03 8:0.35 9:0.58 10:0.66 11:0.31 12:0.7 13:0.62 14:1.28 15:0.03 16:0.23 17:0.42 19:3.12 21:1.36 23:0.46 24:0.46 45:0.03 49:0.005 50:0.088 52:0.319 53:0.479 54:0.124 55:6.11 56:116.0 57:2218.0 
-0.8744277008295079 2:0.38 3:0.76 5:0.38 7:0.19 10:0.57 11:0.19 13:0.19 15:0.19 16:0.19 18:0.95 19:0.19 20:0.19 21:0.95 40:0.19 52:0.632 53:0.03 54:0.09 55:6.789 56:132.0 57:869.0 
-1.0 2:1.25 3:0.62 7:1.25 11:0.62 12:0.62 15:0.62 16:2.5 18:1.25 19:5.0 21:1.25 50:0.044 52:0.223 55:2.35 56:29.0 57:134.0 
-0.8744801510410158 3:0.84 5:0.84 7:0.84 13:0.84 19:2.54 21:1.69 24:0.84 50:0.388 52:0.776 53:0.129 55:10.375 56:168.0 57:249.0 
-1.0 2:0.41 3:0.2 5:1.67 6:0.2 7:0.2 10:1.04 11:0.2 13:0.2 16:0.83 17:0.2 19:2.09 21:0.62 23:0.62 45:0.41 46:0.62 48:0.2 52:0.132 55:1.65 56:15.0 57:175.0 
-0.4274888507959953 19:6.66 24:6.66 52:0.537 55:2.777 56:12.0 57:25.0 
-0.905454388733812 1:0.1 2:0.1 3:0.71 5:0.61 6:0.3 7:0.4 8:0.1 9:1.42 10:0.81 11:0.1 12:0.5 16:0.1 18:1.01 19:2.34 20:0.5 21:2.03 24:0.3 35:0.1 39:0.1 51:0.256 52:0.928 53:0.384 54:0.032 55:3.179 56:56.0 57:1043.0 
-0.8213607758154767 3:0.64 6:0.64 16:0.64 19:2.59 23:0.64 37:0.64 49:0.094 50:0.189 51:0.284 52:0.662 55:10.068 56:131.0 57:292.0 
-0.8744526086304504 1:0.47 2:0.31 3:0.47 5:0.05 6:0.13 7:0.05 8:0.26 9:0.44 10:0.76 11:0.26 12:0.97 13:0.58 14:1.26 16:0.26 17:0.44 19:3.25 21:1.5 23:1.05 24:0.34 45:0.02 49:0.004 50:0.066 52:0.322 53:0.764 54:0.159 55:6.1 56:193.0 57:3038.0 
-0.8733769037699312 1:0.32 3:0.64 11:0.64 12:0.97 16:2.58 19:2.58 20:0.32 21:1.94 23:0.64 49:0.233 50:0.058 52:0.116 53:0.116 55:2.926 56:20.0 57:240.0 
-0.8743163323219529 1:0.19 3:0.38 6:0.19 11:0.19 12:0.19 16:0.38 18:0.19 19:1.14 21:0.38 49:0.01 50:0.01 54:0.003 55:2.383 56:21.0 57:15841.0 
-1.0 45:1.17 50:0.443 52:0.221 53:0.665 55:3.812 56:15.0 57:61.0 
-1.0 3:1.21 45:1.21 49:0.212 50:0.212 53:0.212 55:3.272 56:24.0 57:72.0 
-0.4935356495842572 16:1.08 19:1.08 21:2.17 52:1.478 55:2.0 56:30.0 57:106.0 
-0.44617754802095594 7:1.47 8:1.47 9:1.47 10:1.47 11:1.47 17:2.94 20:1.47 21:2.94 37:1.47 50:0.147 52:0.294 53:0.147 55:72.0 56:281.0 57:288.0 
-1.0 25:2.06 33:1.03 50:0.342 55:2.217 56:10.0 57:51.0 
-1.0 2:0.82 3:0.32 5:1.14 6:0.32 8:0.16 10:0.65 12:2.13 16:0.16 19:1.47 21:1.47 23:0.98 24:0.32 44:0.16 53:0.29 54:0.029 55:2.257 56:13.0 57:158.0 
-0.8741725486604774 1:0.38 3:1.9 5:1.14 9:0.38 10:0.38 19:0.38 20:0.76 25:0.38 52:1.005 53:0.059 55:295.0 56:1177.0 57:1180.0 
-1.0 5:1.82 6:0.36 7:0.36 8:0.72 9:0.36 10:0.36 18:0.36 19:2.91 21:2.18 23:0.72 43:0.36 44:0.36 50:0.297 51:0.059 52:0.178 55:2.446 56:11.0 57:115.0 
-0.8747976373451644 1:0.08 2:0.08 3:0.76 5:0.85 6:1.02 7:0.25 8:0.17 9:0.59 10:0.08 11:0.17 12:0.59 13:0.17 15:2.21 16:0.25 17:0.08 18:0.93 19:1.61 20:0.17 21:0.42 23:0.85 24:0.08 40:0.08 43:0.17 44:0.08 45:0.08 46:0.08 50:0.065 52:0.403 53:0.117 54:0.013 55:7.484 56:669.0 57:1407.0 
-0.1483994285982344 37:3.33 49:0.305 50:0.611 52:1.529 55:5.5 56:22.0 57:66.0 
-0.6547241220446925 16:0.6 24:0.6 50:0.102 52:0.102 53:0.72 55:4.512 56:43.0 57:185.0 
-0.8743220675396023 1:0.22 2:0.22 3:0.22 5:1.77 6:0.22 7:0.44 8:0.44 9:0.22 10:2.88 12:0.88 13:0.22 15:1.11 16:0.44 18:0.44 19:3.33 21:3.33 23:0.44 24:0.44 40:0.44 52:0.563 53:0.15 55:86.65 56:1038.0 57:1733.0 
-1.0 5:1.89 6:0.27 12:0.81 16:0.27 19:3.51 21:2.7 24:0.27 50:0.045 53:0.091 55:1.39 56:11.0 57:89.0 
-1.0 3:0.32 5:0.64 6:0.64 7:0.32 8:0.64 12:0.32 13:0.32 16:0.32 17:0.32 19:2.27 21:3.24 24:0.32 45:0.64 50:0.105 53:0.157 55:1.494 56:10.0 57:139.0 
-0.6113123678454192 2:0.24 3:0.72 5:0.24 7:0.12 10:0.36 11:0.12 13:0.12 15:0.12 16:0.12 18:0.6 19:0.36 20:0.12 21:0.6 40:0.12 50:0.018 52:0.34 54:0.018 55:5.634 56:158.0 57:1234.0 
-1.0 2:1.63 5:0.81 7:1.63 15:0.81 18:0.81 19:1.63 21:2.45 51:0.134 55:3.294 56:11.0 57:56.0 
-0.5543485215190378 1:0.74 2:0.74 3:0.74 7:0.37 9:0.37 10:1.12 11:1.12 12:1.12 18:0.74 19:2.99 21:2.24 24:0.37 51:0.061 52:0.061 53:0.122 55:4.727 56:57.0 57:208.0 
-1.0 1:0.79 2:0.19 3:0.09 8:0.09 9:0.29 10:0.09 11:0.29 12:0.59 13:0.69 16:0.09 18:0.59 19:4.09 21:0.89 23:0.39 24:0.49 50:0.267 52:0.19 53:0.247 55:2.324 56:19.0 57:365.0 
-1.0 16:0.81 19:4.09 50:0.176 52:0.706 55:8.411 56:55.0 57:143.0 
-0.8744434031891358 1:0.31 2:0.31 3:0.31 7:0.31 9:0.31 10:0.31 11:0.31 12:0.31 16:0.94 19:0.31 21:2.51 24:0.31 36:0.31 39:1.88 50:0.75 52:0.89 53:0.046 54:0.046 55:12.382 56:138.0 57:421.0 
-0.2558861586558006 2:0.29 3:0.29 5:0.58 7:0.58 10:0.58 11:0.29 12:0.29 16:1.46 17:0.29 18:0.87 19:1.16 20:0.87 21:1.16 45:0.29 50:0.086 52:0.606 54:0.043 55:3.591 56:37.0 57:352.0 
-0.8289659696897024 1:1.47 10:1.47 13:1.47 16:7.35 19:2.94 21:1.47 24:4.41 52:1.272 53:0.254 55:6.055 56:63.0 57:109.0 
-1.0 3:0.89 5:1.78 6:0.44 12:0.44 16:1.33 19:2.23 21:4.46 50:0.074 55:2.25 56:12.0 57:144.0 
-0.8743688662347742 5:0.13 10:0.13 12:0.06 19:0.2 21:0.06 49:0.01 50:1.03 53:1.611 54:0.01 55:7.549 56:278.0 57:3752.0 
-0.8746536159402448 2:0.85 3:0.42 5:0.42 7:0.42 9:1.27 10:0.85 12:0.42 13:0.42 19:2.55 21:2.12 24:0.42 38:0.42 50:0.221 52:0.177 53:0.221 54:0.177 55:8.777 56:54.0 57:553.0 
-1.0 7:0.86 16:0.86 18:1.73 19:3.47 21:1.73 50:0.152 52:0.457 55:2.75 56:10.0 57:55.0 
-1.0 5:1.48 6:0.74 7:1.48 10:0.74 11:0.74 12:0.74 13:0.74 16:0.74 17:0.74 19:2.22 21:3.7 52:0.108 55:2.346 56:12.0 57:61.0 
-0.7622044330377187 1:1.26 2:0.42 3:1.26 12:0.42 16:0.42 18:0.84 19:3.79 21:1.26 24:0.42 45:0.42 50:0.067 52:0.472 53:0.472 55:3.0 56:19.0 57:108.0 
-1.0 19:6.17 45:2.46 52:1.235 55:4.466 56:10.0 57:134.0 
-1.0 5:1.92 10:0.64 11:0.96 12:1.28 16:0.96 18:0.32 19:3.85 21:0.64 50:0.054 52:0.164 53:0.054 55:1.671 56:4.0 57:112.0 
-0.9332945143983239 20:18.18 55:1.1 56:2.0 57:11.0 
-0.07944952565948411 19:5.55 21:1.11 52:1.431 55:4.071 56:29.0 57:114.0 
-0.8795312102983859 3:0.37 5:1.11 6:0.74 8:2.96 10:2.96 13:0.74 17:2.22 19:5.18 21:2.22 50:0.149 52:1.096 55:5.16 56:107.0 57:289.0 
-0.42907212695164676 1:0.25 5:0.51 6:0.51 9:0.25 11:0.25 13:0.25 17:0.25 19:2.81 21:0.25 23:0.25 24:0.76 50:0.041 52:0.209 53:0.209 55:2.776 56:75.0 57:211.0 
-0.6118961315335041 1:0.13 2:0.26 3:0.52 5:0.26 7:0.13 10:0.39 11:0.13 12:0.13 13:0.13 15:0.26 16:0.13 18:0.78 19:0.39 20:0.13 21:0.52 52:0.366 54:0.04 55:7.138 56:149.0 57:1235.0 
-0.8744012460848825 1:0.5 2:0.25 3:0.42 5:0.08 6:0.23 7:0.02 8:0.35 9:0.35 10:0.69 11:0.21 12:0.9 13:0.5 14:0.92 15:0.02 16:0.33 17:0.42 18:0.02 19:3.05 21:1.43 23:0.94 24:0.46 40:0.02 45:0.02 47:0.02 50:0.069 52:0.325 53:0.523 54:0.124 55:6.723 56:445.0 57:4128.0 
-1.0 5:0.43 6:0.86 19:2.17 30:0.86 50:0.068 55:2.923 56:55.0 57:114.0 
-0.8740415654353756 1:0.51 2:0.43 3:0.29 5:0.14 6:0.03 8:0.18 9:0.54 10:0.62 11:0.29 12:0.65 13:0.65 14:1.2 15:0.03 16:0.21 17:0.43 18:0.03 19:2.99 21:1.35 23:0.51 24:0.58 45:0.03 49:0.012 50:0.078 52:0.478 53:0.509 54:0.127 55:6.518 56:611.0 57:2340.0 
-1.0 45:1.17 50:0.407 52:0.203 53:0.61 55:4.133 56:17.0 57:62.0 
-0.6950844734476821 3:1.31 12:1.31 19:1.31 21:5.26 24:1.31 53:0.21 55:4.5 56:25.0 57:54.0 
-0.9109397111243671 5:6.25 7:3.12 12:3.12 19:6.25 55:9.428 56:60.0 57:66.0 
-1.0 22:2.0 52:1.413 55:4.047 56:22.0 57:85.0 
-0.6061516770731542 1:0.43 5:0.87 6:0.87 10:0.43 12:2.18 17:1.74 19:0.87 21:0.87 24:0.43 36:0.43 52:0.835 55:5.114 56:107.0 57:179.0 
-0.5154939423640922 2:0.51 10:0.51 11:1.02 12:0.51 16:0.25 17:0.76 18:1.27 19:2.04 21:0.76 40:0.25 50:0.457 52:0.29 54:0.124 55:2.614 56:66.0 57:149.0 
-1.0 8:0.67 10:0.67 37:1.34 49:0.17 50:0.511 51:0.085 52:0.511 55:4.617 56:27.0 57:217.0 
-0.6540499959084681 1:1.63 5:2.45 16:0.81 19:3.27 21:1.63 37:0.81 52:0.258 55:2.826 56:20.0 57:65.0 
-0.8745463637665456 1:0.09 2:0.09 3:1.14 5:0.38 8:0.09 10:0.19 11:0.38 12:0.19 16:0.66 19:1.52 21:1.42 43:0.38 49:0.044 50:0.059 52:0.591 55:3.28 56:31.0 57:771.0 
-1.0 3:0.72 5:0.72 7:0.72 13:0.72 19:1.45 21:1.45 24:0.72 50:0.364 52:0.729 53:0.121 55:7.781 56:32.0 57:249.0 
-1.0 16:4.0 52:2.597 55:4.153 56:26.0 57:54.0 
-1.0 5:0.87 8:1.16 11:0.29 12:1.74 17:0.87 19:4.95 21:2.91 49:0.151 55:1.095 56:4.0 57:46.0 
-1.0 1:0.42 3:0.42 5:2.53 6:0.42 7:0.42 10:0.84 11:0.42 12:0.84 16:1.68 19:2.95 21:2.1 23:2.53 50:0.291 52:0.072 53:1.457 54:0.072 55:2.632 56:12.0 57:179.0 
-1.0 16:2.04 19:1.02 20:1.02 50:0.174 52:0.174 55:1.787 56:7.0 57:59.0 
-0.7400153747424054 1:0.17 3:0.08 5:0.43 6:0.08 7:0.08 8:0.43 9:0.08 10:0.08 12:0.6 13:0.17 14:0.17 17:0.17 18:0.08 19:1.2 21:3.14 23:0.34 24:0.08 50:0.081 51:0.027 52:0.088 53:0.013 55:4.16 56:48.0 57:1140.0 
-1.0 2:0.89 5:0.89 13:0.89 16:0.89 19:6.25 20:2.67 21:1.78 40:0.89 45:0.89 52:1.129 53:0.483 55:1.826 56:10.0 57:42.0 
-1.0 5:2.94 16:2.94 49:0.355 50:0.355 52:0.711 55:4.0 56:12.0 57:28.0 
-0.5672174220290351 1:0.54 3:1.08 5:0.54 7:1.08 12:0.54 16:0.54 17:0.54 19:4.32 21:1.08 23:1.62 45:0.54 52:1.18 53:0.252 55:5.323 56:68.0 57:181.0 
-1.0 45:1.44 50:0.196 52:0.392 53:0.196 55:5.466 56:22.0 57:82.0 
-1.0 3:1.29 12:1.29 19:1.29 21:5.19 24:1.29 53:0.208 55:4.818 56:25.0 57:53.0 
-0.8702390231286995 1:0.85 5:0.85 12:0.85 13:0.42 16:1.28 19:3.86 21:0.85 24:0.85 50:0.066 52:0.535 53:0.133 55:11.592 56:110.0 57:313.0 
-1.0 7:2.1 12:1.05 19:4.21 55:2.695 56:15.0 57:62.0 
-0.8743908177880726 2:3.05 3:0.38 5:1.14 6:0.19 10:1.52 11:0.19 12:0.76 13:0.19 17:1.72 18:0.38 19:3.05 20:0.38 21:2.67 43:0.19 50:0.171 52:0.294 53:0.147 54:0.024 55:17.074 56:430.0 57:1144.0 
-0.8739566429269704 1:0.17 2:0.17 3:0.25 5:0.43 6:0.08 7:0.08 8:0.08 9:0.69 10:2.41 12:0.34 13:0.17 15:1.46 16:0.34 17:0.08 19:2.76 20:0.43 21:1.55 23:0.17 24:0.17 40:0.43 45:0.34 46:0.08 50:0.107 52:0.308 53:0.067 54:0.026 55:4.215 56:82.0 57:1214.0 
-0.02605236007638659 3:0.32 5:0.65 6:0.65 7:0.32 8:0.32 12:0.32 13:0.32 16:0.32 17:0.32 19:2.28 21:3.26 24:0.32 45:0.32 50:0.106 53:0.159 55:1.494 56:10.0 57:139.0 
-0.8747400471106932 1:0.32 2:0.16 3:0.56 5:0.32 6:0.24 7:0.04 8:1.16 9:0.4 10:0.4 11:0.12 12:0.68 13:0.52 14:0.4 15:0.28 16:0.64 17:0.36 18:0.4 19:3.06 20:0.16 21:1.28 23:0.36 24:0.6 40:0.04 45:0.12 49:0.019 50:0.052 51:0.066 52:0.37 53:0.152 55:3.225 56:181.0 57:1500.0 
-1.0 5:0.67 7:0.67 19:0.67 21:0.67 49:0.114 50:0.114 52:0.228 53:0.228 55:2.847 56:16.0 57:168.0 
-0.7829081310073862 1:0.51 3:0.77 5:0.25 6:0.25 10:0.51 12:1.55 16:0.77 17:1.55 19:4.9 21:2.58 23:0.77 24:0.25 39:0.25 50:0.179 52:0.359 53:0.403 54:0.134 55:5.774 56:56.0 57:358.0 
-1.0 19:4.0 55:2.363 56:11.0 57:26.0 
-0.736670756545239 1:0.33 3:0.66 5:0.22 9:0.44 10:0.11 12:0.33 16:0.55 19:1.76 21:1.1 24:0.22 38:0.11 43:0.11 50:0.173 52:0.367 53:0.193 54:0.077 55:2.559 56:75.0 57:389.0 
-1.0 3:0.78 5:1.17 12:0.39 16:0.78 19:1.56 21:1.96 24:0.78 53:0.094 55:4.111 56:20.0 57:222.0 
-0.29759096063829826 3:0.89 5:1.79 6:0.44 12:0.44 16:1.34 19:2.24 21:4.48 50:0.074 55:2.25 56:12.0 57:144.0 
-0.5659940106348161 5:0.97 7:0.97 16:0.97 21:1.94 44:0.97 52:0.834 55:3.052 56:68.0 57:116.0 
-1.0 3:0.55 5:1.11 13:0.92 15:0.18 17:0.37 18:0.37 19:3.15 21:0.92 50:0.185 52:0.464 55:1.392 56:4.0 57:78.0 
-1.0 1:1.0 3:0.33 5:0.66 6:0.66 12:0.33 13:0.66 16:0.66 17:0.66 19:2.33 21:0.33 23:1.66 24:0.33 50:0.06 52:0.12 53:0.541 55:5.428 56:21.0 57:304.0 
-1.0 5:0.9 7:0.9 10:0.9 11:0.9 13:0.9 19:2.72 21:0.9 55:2.083 56:7.0 57:25.0 
-0.9864383822272478 19:6.66 24:6.66 52:0.537 55:2.777 56:12.0 57:25.0 
-1.0 2:1.25 3:0.62 7:1.25 11:0.62 12:0.62 15:0.62 16:2.5 18:1.25 19:5.0 21:1.25 50:0.045 52:0.225 55:2.35 56:29.0 57:134.0 
-0.7961682957955127 5:0.52 7:0.26 8:0.52 10:0.26 11:0.26 12:0.52 16:0.26 17:1.56 18:0.26 19:1.82 20:2.08 21:0.26 50:0.073 52:0.813 53:0.036 54:0.147 55:2.145 56:38.0 57:339.0 
-0.8746877782021467 1:0.49 2:0.33 3:0.33 5:0.08 6:0.41 7:0.08 8:0.24 10:1.4 11:0.33 12:0.57 13:0.9 15:0.24 19:2.89 21:0.9 23:0.16 24:0.41 33:0.08 50:0.063 52:0.271 53:0.191 54:0.095 55:4.904 56:264.0 57:667.0 
-1.0 1:0.93 3:0.93 5:0.93 6:0.93 8:0.93 13:0.93 19:3.73 21:2.8 50:0.343 52:0.343 53:0.171 55:2.235 56:15.0 57:38.0 
-1.0 45:1.17 50:0.441 52:0.441 53:0.662 55:4.066 56:17.0 57:61.0 
-0.8561671759372617 1:0.14 2:0.14 3:0.29 9:1.02 10:0.29 11:0.14 12:0.58 18:0.14 19:2.35 20:0.14 21:1.02 24:0.44 38:0.29 45:0.14 50:0.204 52:0.153 53:0.153 54:0.102 55:2.705 56:73.0 57:368.0 
-0.9703689121496638 19:12.5 24:12.5 55:1.0 56:1.0 57:2.0 
-1.0 2:0.54 7:1.08 10:0.54 11:0.54 12:0.54 16:2.17 18:0.54 19:3.26 21:1.08 45:0.54 52:0.334 55:1.325 56:5.0 57:53.0 
-1.0 3:0.58 5:1.16 10:0.58 16:0.58 19:0.58 21:1.16 55:2.101 56:11.0 57:145.0 
-1.0 3:0.94 16:0.47 21:0.47 28:0.94 29:0.47 39:0.47 46:0.94 50:0.332 55:1.518 56:15.0 57:161.0 
-0.8744106114885275 1:0.34 2:0.25 3:0.25 5:0.08 6:0.43 7:0.08 8:0.25 9:0.08 10:1.46 11:0.34 12:0.51 13:0.94 15:0.17 16:0.08 19:3.01 21:0.77 22:0.17 23:0.34 24:0.34 45:0.17 50:0.048 52:0.258 53:0.258 54:0.113 55:5.297 56:300.0 57:694.0 
-0.6754406013581183 3:0.52 5:0.52 8:0.52 12:1.05 15:2.11 17:0.52 18:0.52 19:2.64 21:2.64 23:1.58 39:0.52 40:0.52 50:0.19 52:0.095 53:0.475 55:5.038 56:60.0 57:131.0 
-0.7026005430447563 3:1.07 5:0.53 19:3.22 20:0.53 21:1.07 22:8.06 52:0.265 53:0.088 54:1.151 55:11.066 56:67.0 57:332.0 
-1.0 7:1.38 21:1.38 49:0.47 52:0.235 53:0.235 54:1.882 55:6.266 56:41.0 57:94.0 
-0.6949193103741423 1:0.99 2:0.49 10:0.49 12:0.49 19:2.48 21:1.99 22:2.98 52:0.356 54:0.446 55:10.366 56:64.0 57:311.0 
-0.8744729102189073 19:4.44 52:1.385 55:20.0 56:169.0 57:180.0 
-0.12259786574878707 14:1.8 17:0.6 19:1.2 28:1.2 44:0.6 46:1.8 50:0.299 54:0.199 55:2.465 56:28.0 57:106.0 
-0.5167566698733691 1:0.62 2:0.62 6:1.86 12:0.62 13:0.62 18:0.62 19:2.48 21:1.86 50:0.327 52:2.295 53:0.218 55:5.166 56:28.0 57:155.0 
-0.9015732919783581 1:0.28 2:0.28 3:0.56 5:0.28 6:0.28 8:1.4 9:0.28 10:0.84 11:0.28 12:0.56 17:1.4 18:0.56 19:1.69 20:1.97 21:3.09 40:0.28 50:0.284 52:1.282 53:0.094 55:3.725 56:63.0 57:339.0 
-1.0 3:0.15 5:0.62 7:0.31 9:1.09 13:0.46 16:0.15 17:0.15 18:1.4 19:2.19 21:1.09 23:0.62 50:0.252 52:0.378 53:4.017 55:3.278 56:23.0 57:259.0 
-0.6845464091315119 3:0.67 7:0.67 8:2.02 17:0.67 19:3.37 21:1.35 24:0.67 50:0.095 52:0.286 55:5.558 56:39.0 57:189.0 
-1.0 3:0.33 5:0.99 6:0.99 7:0.33 8:0.33 12:0.33 13:0.33 16:0.33 17:0.33 19:1.98 21:3.3 24:0.33 45:0.33 50:0.107 53:0.161 54:0.053 55:2.195 56:50.0 57:202.0 
-0.8997624380157339 3:0.69 5:0.69 7:0.69 13:0.69 19:1.38 21:2.08 24:0.69 50:0.35 52:0.701 53:0.116 55:8.781 56:34.0 57:281.0 
-1.0 2:0.49 3:0.49 5:1.49 10:0.99 11:0.49 16:0.49 19:0.99 20:0.49 21:1.99 24:0.49 37:1.49 40:0.49 50:0.078 52:0.625 53:0.312 55:4.75 56:47.0 57:190.0 
-1.0 1:0.18 3:0.18 5:1.57 6:0.36 7:0.06 8:0.06 9:0.06 10:0.12 11:0.06 12:0.54 13:0.3 14:0.06 17:0.72 18:0.06 19:4.48 20:0.24 21:1.15 23:0.84 24:0.06 43:0.06 45:0.06 49:0.01 50:0.052 52:0.01 53:0.167 55:1.733 56:12.0 57:442.0 
-0.7428642167082251 1:0.5 2:0.4 3:0.33 5:0.13 6:0.03 7:0.13 8:0.1 9:0.54 10:0.77 11:0.3 12:0.7 13:0.54 14:1.14 15:0.03 16:0.27 17:0.43 18:0.03 19:3.2 21:1.45 23:0.37 24:0.6 45:0.06 50:0.071 52:0.456 53:0.5 54:0.11 55:6.049 56:129.0 57:2220.0 
-1.0 12:1.14 19:1.14 55:1.545 56:4.0 57:17.0 
-0.49575217462936283 2:0.6 6:0.6 10:0.3 12:1.21 17:0.3 19:0.3 21:0.3 23:0.6 50:0.146 53:0.097 55:3.23 56:77.0 57:210.0 
-0.8743368699297742 1:0.05 2:0.3 3:0.4 5:0.1 6:0.05 8:0.05 9:0.1 12:0.3 13:0.2 15:0.05 18:0.5 19:1.55 20:0.3 21:0.75 23:0.15 24:0.2 25:0.05 26:0.05 44:0.05 45:0.05 50:0.045 52:0.054 53:0.118 55:2.37 56:96.0 57:588.0 
-1.0 3:0.62 5:0.62 10:0.62 16:0.62 19:1.24 21:0.62 50:0.105 52:1.055 55:2.033 56:16.0 57:120.0 
-0.44676577187320354 7:1.47 8:1.47 9:1.47 10:1.47 11:1.47 17:2.94 20:1.47 21:2.94 37:1.47 50:0.147 52:0.294 53:0.147 55:71.5 56:281.0 57:286.0 
-1.0 3:1.56 7:1.56 16:1.56 45:1.56 50:0.233 52:0.7 55:2.125 56:12.0 57:34.0 
-0.8882304022688737 1:0.19 2:0.19 3:0.29 5:1.07 6:0.19 7:0.19 8:0.97 9:0.87 10:0.58 11:0.09 12:1.07 13:0.19 14:0.87 15:0.09 18:1.17 19:3.81 20:0.68 21:1.75 23:0.09 24:0.29 39:0.09 40:0.09 51:0.201 52:0.402 53:0.232 54:0.03 55:4.295 56:49.0 57:872.0 
-0.7398780098976894 3:0.15 5:0.31 7:0.15 9:0.63 10:0.15 11:0.15 16:1.11 18:1.27 19:0.79 25:0.95 37:0.31 40:0.15 50:0.088 52:0.862 53:0.707 54:0.022 55:5.423 56:51.0 57:1128.0 
-1.0 19:0.39 21:0.39 25:3.58 26:0.39 30:0.39 44:0.39 45:0.39 55:2.5 56:21.0 57:130.0 
-0.8745343646211347 1:0.09 3:0.67 5:0.29 9:0.19 10:0.38 11:0.09 12:1.35 13:1.06 16:0.29 17:0.19 19:2.51 21:1.35 24:0.38 40:0.58 45:0.29 48:0.19 50:0.149 52:0.374 53:0.059 55:9.039 56:148.0 57:1148.0 
-1.0 1:0.44 5:0.89 10:0.44 12:1.34 16:0.44 19:4.03 21:1.79 24:0.44 45:0.44 52:0.944 53:0.145 54:0.072 55:2.451 56:28.0 57:152.0 
-0.87475039828006 1:0.51 2:0.17 3:0.51 5:1.7 6:0.34 9:0.85 10:0.17 12:0.68 13:0.17 14:0.34 16:0.17 17:0.17 19:2.9 21:2.05 23:0.68 24:1.36 52:0.387 53:1.961 54:0.025 55:11.0 56:183.0 57:660.0 
-0.8862251188447021 1:0.16 3:0.67 5:0.33 6:0.16 7:0.33 8:0.84 9:0.16 10:0.5 11:0.33 12:1.51 17:1.68 18:0.33 19:2.18 20:1.68 21:3.69 24:0.33 40:0.16 50:0.19 52:1.194 53:0.054 55:5.567 56:101.0 57:657.0 
-0.6873491786696392 1:0.46 5:0.69 6:0.46 8:0.46 10:0.23 11:0.23 13:1.61 15:0.46 17:0.92 18:1.84 19:1.84 21:0.69 23:1.61 40:0.92 50:0.037 52:0.188 53:0.112 55:3.105 56:30.0 57:354.0 
-1.0 1:2.32 52:0.277 55:3.2 56:13.0 57:48.0 
-1.0 2:0.48 3:0.48 5:0.48 12:0.97 16:0.48 18:0.97 19:1.46 21:0.97 50:0.08 52:0.963 55:3.1 56:61.0 57:186.0 
-0.7877727775682589 3:0.53 5:0.21 6:0.1 7:0.1 8:0.53 9:0.1 10:0.21 12:0.64 17:0.1 23:0.74 50:0.099 52:0.016 53:0.066 55:2.104 56:29.0 57:381.0 
-0.8746699554069082 3:0.24 5:0.72 9:1.69 11:0.48 12:1.21 16:0.24 19:2.91 21:1.21 24:0.24 38:0.24 45:0.24 50:0.036 52:1.021 53:0.291 54:0.109 55:7.092 56:67.0 57:461.0 
-1.0 1:0.6 5:1.21 7:0.6 12:0.6 18:0.6 19:3.65 21:1.21 24:0.6 37:1.21 52:0.105 53:0.315 55:3.217 56:30.0 57:74.0 
-0.8752988775187704 5:0.42 6:0.42 7:0.42 12:0.42 19:0.84 21:0.42 22:8.82 50:0.062 52:0.187 54:1.002 55:7.951 56:74.0 57:493.0 
-0.41832022344231984 3:0.3 5:0.3 6:0.3 7:0.3 8:0.3 11:0.6 12:0.9 16:0.9 17:0.6 18:0.3 19:2.4 20:2.7 21:3.0 24:0.6 50:0.048 52:0.144 54:0.096 55:5.403 56:139.0 57:281.0 
-0.7984165254106842 1:0.25 2:0.17 3:0.34 6:0.08 9:0.08 10:0.08 11:0.08 12:0.86 16:0.08 18:0.25 19:4.66 21:1.2 24:0.08 43:0.08 50:0.015 52:0.094 53:0.015 55:2.531 56:89.0 57:319.0 
-0.8745870283206261 1:0.65 2:0.49 3:0.32 5:0.32 6:0.16 8:0.49 9:0.65 10:0.49 11:0.16 12:1.3 15:0.16 16:1.14 17:1.3 18:0.16 19:3.6 20:0.49 21:1.8 24:0.49 46:0.16 50:0.225 52:0.902 53:0.225 54:2.233 55:5.833 56:47.0 57:595.0 
-0.87475039828006 1:0.15 3:0.46 5:0.61 7:0.3 9:0.92 10:0.76 11:0.76 12:0.92 18:0.15 19:1.23 20:3.53 21:2.0 24:0.15 33:0.15 43:0.3 50:0.271 52:0.181 53:0.203 54:0.022 55:9.744 56:445.0 57:1257.0 
-0.8743585830076931 1:0.96 3:0.48 6:0.96 9:0.48 11:0.48 15:1.44 16:0.48 17:0.48 18:2.41 21:0.96 24:0.48 33:0.48 46:0.48 50:0.818 52:0.175 53:0.467 54:0.116 55:9.56 56:259.0 57:717.0 
-1.0 1:0.49 3:0.99 6:0.99 10:0.99 11:0.99 12:2.48 13:0.49 16:4.97 17:0.99 19:3.48 21:1.99 23:0.49 50:0.34 52:0.17 55:1.468 56:8.0 57:94.0 
-0.6605476734942733 23:1.96 37:1.96 50:0.201 53:0.1 55:4.548 56:59.0 57:141.0 
-0.5811138158816248 1:0.31 5:0.94 11:0.31 16:0.31 18:0.31 19:3.76 20:0.31 21:0.62 24:0.62 35:0.31 45:1.25 50:0.055 52:0.055 53:0.111 55:2.358 56:32.0 57:125.0 
-0.3726472030583845 3:1.55 6:0.77 8:0.38 11:0.38 12:1.16 16:0.38 18:1.16 19:1.93 21:0.38 23:1.16 24:0.38 50:0.06 52:0.609 53:0.121 55:2.666 56:22.0 57:160.0 
-0.6303951394116891 5:1.21 8:0.6 10:0.6 11:1.21 16:1.82 19:4.26 50:0.29 52:0.193 55:1.861 56:26.0 57:67.0 
-1.0 3:0.48 5:0.72 6:0.48 9:0.24 11:0.48 12:0.24 16:0.48 18:0.24 19:1.21 21:1.45 23:0.48 24:0.24 30:0.24 40:0.24 43:0.24 48:0.24 50:0.036 52:0.036 53:0.184 55:2.276 56:66.0 57:255.0 
-1.0 3:3.03 16:3.03 50:0.352 52:2.112 55:3.909 56:11.0 57:43.0 
-0.7497369565280018 3:0.48 5:0.96 7:0.48 16:0.48 17:0.96 19:1.92 21:1.44 23:0.48 24:0.48 45:1.44 50:0.073 52:0.515 53:0.957 55:6.833 56:78.0 57:328.0 
-1.0 3:0.63 21:0.63 35:1.91 50:0.265 52:0.797 53:0.885 55:9.29 56:75.0 57:288.0 
-0.35175719843743575 1:0.44 3:0.88 5:0.44 6:1.32 18:0.44 19:1.76 21:2.2 23:2.2 49:0.222 52:0.444 53:0.37 55:2.413 56:16.0 57:140.0 
-0.6979500239774974 3:1.4 5:0.46 7:0.46 8:1.4 10:0.46 19:2.8 21:1.86 40:0.93 50:0.123 52:0.37 55:6.137 56:54.0 57:313.0 
-1.0 12:6.25 19:12.5 55:1.0 56:1.0 57:2.0 
-1.0 5:0.32 6:0.64 10:0.64 12:0.32 19:1.94 30:0.97 50:0.052 52:0.263 53:0.105 55:3.418 56:110.0 57:188.0 
-1.0 7:1.66 19:3.33 24:3.33 52:0.368 55:2.611 56:12.0 57:47.0 
-1.0 7:1.58 13:1.58 19:1.58 52:0.558 53:0.279 55:3.272 56:23.0 57:36.0 
-0.6082263570627667 3:0.29 5:0.29 6:0.29 7:0.29 8:0.29 11:0.58 12:0.87 16:0.87 17:0.58 18:0.29 19:2.61 20:2.61 21:2.9 24:0.58 50:0.046 52:0.14 54:0.14 55:4.892 56:139.0 57:274.0 
-1.0 5:0.97 7:0.97 16:0.97 21:0.97 25:0.97 26:0.97 37:0.97 49:0.503 50:0.167 53:0.167 54:1.342 55:3.5 56:13.0 57:77.0 
-0.8744032802430097 1:0.48 2:0.97 3:0.97 5:0.48 8:0.48 10:1.95 12:2.43 14:0.48 16:0.48 19:1.95 21:5.36 50:0.26 52:1.739 53:0.173 54:0.086 55:56.538 56:636.0 57:735.0 
-0.8994704239177067 1:1.24 3:0.82 7:0.41 10:0.41 12:0.41 16:1.65 17:0.41 19:2.9 21:0.41 23:0.41 24:0.82 50:0.193 52:0.904 53:5.3 55:7.478 56:92.0 57:344.0 
-0.8744522586420648 1:0.87 2:0.17 3:0.52 6:0.32 8:0.04 9:0.29 10:0.42 11:0.39 12:1.37 13:0.87 14:1.69 16:0.32 17:0.54 18:0.22 19:3.47 20:0.29 21:1.32 23:0.34 24:0.84 44:0.02 45:0.07 47:0.04 49:0.016 50:0.058 52:0.638 53:0.165 54:0.182 55:3.697 56:117.0 57:3498.0 
-0.8743283626302152 3:0.71 5:0.23 9:0.23 10:0.23 11:0.23 12:1.9 16:0.23 19:3.81 20:0.23 21:1.19 50:0.111 52:1.045 53:0.037 55:4.022 56:97.0 57:543.0 
-1.0 3:0.27 5:0.81 6:0.81 8:2.98 9:0.54 10:0.81 11:0.27 12:0.54 13:0.27 16:0.81 17:1.63 18:0.27 19:2.17 20:1.35 21:2.44 24:0.27 50:0.04 52:0.565 53:0.121 55:1.617 56:18.0 57:131.0 
-1.0 1:0.53 17:0.53 19:1.6 21:1.06 50:0.062 52:0.311 55:1.954 56:11.0 57:43.0 
